<?xml version="1.0"?>
<opencv_storage>
<cascade>
  <stageType>BOOST</stageType>
  <featureType>HAAR</featureType>
  <height>20</height>
  <width>20</width>
  <stageParams>
    <boostType>GAB</boostType>
    <minHitRate>9.9500000476837158e-01</minHitRate>
    <maxFalseAlarm>5.0000000000000000e-01</maxFalseAlarm>
    <weightTrimRate>9.4999999999999996e-01</weightTrimRate>
    <maxDepth>1</maxDepth>
    <maxWeakCount>100</maxWeakCount></stageParams>
  <featureParams>
    <maxCatCount>0</maxCatCount>
    <featSize>1</featSize>
    <mode>BASIC</mode></featureParams>
  <stageNum>6</stageNum>
  <stages>
    <!-- stage 0 -->
    <_>
      <maxWeakCount>2</maxWeakCount>
      <stageThreshold>-1.6166767477989197e-01</stageThreshold>
      <weakClassifiers>
        <_>
          <internalNodes>
            0 -1 11 -8.8967107236385345e-02</internalNodes>
          <leafValues>
            9.1325300931930542e-01 -9.9183672666549683e-01</leafValues></_>
        <_>
          <internalNodes>
            0 -1 12 -2.2933469712734222e-01</internalNodes>
          <leafValues>
            8.3016908168792725e-01 -9.6468460559844971e-01</leafValues></_></weakClassifiers></_>
    <!-- stage 1 -->
    <_>
      <maxWeakCount>3</maxWeakCount>
      <stageThreshold>-1.3639510869979858e+00</stageThreshold>
      <weakClassifiers>
        <_>
          <internalNodes>
            0 -1 1 -1.1318540573120117e-01</internalNodes>
          <leafValues>
            6.7887932062149048e-01 -9.6938776969909668e-01</leafValues></_>
        <_>
          <internalNodes>
            0 -1 13 -2.0648291334509850e-02</internalNodes>
          <leafValues>
            6.4365875720977783e-01 -8.2961869239807129e-01</leafValues></_>
        <_>
          <internalNodes>
            0 -1 4 -8.6083799600601196e-02</internalNodes>
          <leafValues>
            4.3505540490150452e-01 -9.9148130416870117e-01</leafValues></_></weakClassifiers></_>
    <!-- stage 2 -->
    <_>
      <maxWeakCount>3</maxWeakCount>
      <stageThreshold>-1.3779666423797607e+00</stageThreshold>
      <weakClassifiers>
        <_>
          <internalNodes>
            0 -1 3 -4.4545158743858337e-02</internalNodes>
          <leafValues>
            3.7621146440505981e-01 -9.6738195419311523e-01</leafValues></_>
        <_>
          <internalNodes>
            0 -1 8 -1.7793716490268707e-01</internalNodes>
          <leafValues>
            5.0925409793853760e-01 -8.3092677593231201e-01</leafValues></_>
        <_>
          <internalNodes>
            0 -1 14 1.0580473579466343e-02</internalNodes>
          <leafValues>
            -9.7218751907348633e-01 4.2034205794334412e-01</leafValues></_></weakClassifiers></_>
    <!-- stage 3 -->
    <_>
      <maxWeakCount>2</maxWeakCount>
      <stageThreshold>-4.7861623764038086e-01</stageThreshold>
      <weakClassifiers>
        <_>
          <internalNodes>
            0 -1 7 -2.1094550192356110e-01</internalNodes>
          <leafValues>
            5.6060606241226196e-01 -8.6564624309539795e-01</leafValues></_>
        <_>
          <internalNodes>
            0 -1 17 1.2794878333806992e-02</internalNodes>
          <leafValues>
            -9.4160896539688110e-01 3.8703000545501709e-01</leafValues></_></weakClassifiers></_>
    <!-- stage 4 -->
    <_>
      <maxWeakCount>4</maxWeakCount>
      <stageThreshold>-9.1054177284240723e-01</stageThreshold>
      <weakClassifiers>
        <_>
          <internalNodes>
            0 -1 0 -2.7480838820338249e-02</internalNodes>
          <leafValues>
            5.1641136407852173e-01 -8.0294656753540039e-01</leafValues></_>
        <_>
          <internalNodes>
            0 -1 2 -1.2838765978813171e-01</internalNodes>
          <leafValues>
            3.6010178923606873e-01 -9.1856551170349121e-01</leafValues></_>
        <_>
          <internalNodes>
            0 -1 9 1.6708500683307648e-02</internalNodes>
          <leafValues>
            -9.0818530321121216e-01 3.3648043870925903e-01</leafValues></_>
        <_>
          <internalNodes>
            0 -1 16 -9.8438863642513752e-04</internalNodes>
          <leafValues>
            4.7448989748954773e-01 -7.6499277353286743e-01</leafValues></_></weakClassifiers></_>
    <!-- stage 5 -->
    <_>
      <maxWeakCount>4</maxWeakCount>
      <stageThreshold>-8.5140502452850342e-01</stageThreshold>
      <weakClassifiers>
        <_>
          <internalNodes>
            0 -1 10 9.1104641556739807e-02</internalNodes>
          <leafValues>
            -7.1359616518020630e-01 6.4332890510559082e-01</leafValues></_>
        <_>
          <internalNodes>
            0 -1 15 1.4097699895501137e-03</internalNodes>
          <leafValues>
            -9.1614013910293579e-01 3.5363230109214783e-01</leafValues></_>
        <_>
          <internalNodes>
            0 -1 5 -3.8527408614754677e-03</internalNodes>
          <leafValues>
            4.0648952126502991e-01 -8.0521249771118164e-01</leafValues></_>
        <_>
          <internalNodes>
            0 -1 6 -1.1931931972503662e-01</internalNodes>
          <leafValues>
            3.7184175848960876e-01 -8.7609034776687622e-01</leafValues></_></weakClassifiers></_></stages>
  <features>
    <_>
      <rects>
        <_>
          1 4 8 4 -1.</_>
        <_>
          1 4 4 2 2.</_>
        <_>
          5 6 4 2 2.</_></rects>
      <tilted>0</tilted></_>
    <_>
      <rects>
        <_>
          1 6 10 8 -1.</_>
        <_>
          6 6 5 8 2.</_></rects>
      <tilted>0</tilted></_>
    <_>
      <rects>
        <_>
          2 5 12 10 -1.</_>
        <_>
          8 5 6 10 2.</_></rects>
      <tilted>0</tilted></_>
    <_>
      <rects>
        <_>
          2 6 6 6 -1.</_>
        <_>
          5 6 3 6 2.</_></rects>
      <tilted>0</tilted></_>
    <_>
      <rects>
        <_>
          2 7 14 8 -1.</_>
        <_>
          9 7 7 8 2.</_></rects>
      <tilted>0</tilted></_>
    <_>
      <rects>
        <_>
          3 7 2 5 -1.</_>
        <_>
          4 7 1 5 2.</_></rects>
      <tilted>0</tilted></_>
    <_>
      <rects>
        <_>
          4 5 15 10 -1.</_>
        <_>
          9 5 5 10 3.</_></rects>
      <tilted>0</tilted></_>
    <_>
      <rects>
        <_>
          5 3 9 12 -1.</_>
        <_>
          5 7 9 4 3.</_></rects>
      <tilted>0</tilted></_>
    <_>
      <rects>
        <_>
          5 3 11 8 -1.</_>
        <_>
          5 7 11 4 2.</_></rects>
      <tilted>0</tilted></_>
    <_>
      <rects>
        <_>
          6 9 2 6 -1.</_>
        <_>
          6 12 2 3 2.</_></rects>
      <tilted>0</tilted></_>
    <_>
      <rects>
        <_>
          7 0 4 9 -1.</_>
        <_>
          7 3 4 3 3.</_></rects>
      <tilted>0</tilted></_>
    <_>
      <rects>
        <_>
          7 3 4 12 -1.</_>
        <_>
          7 7 4 4 3.</_></rects>
      <tilted>0</tilted></_>
    <_>
      <rects>
        <_>
          7 3 9 15 -1.</_>
        <_>
          7 8 9 5 3.</_></rects>
      <tilted>0</tilted></_>
    <_>
      <rects>
        <_>
          8 4 2 4 -1.</_>
        <_>
          8 6 2 2 2.</_></rects>
      <tilted>0</tilted></_>
    <_>
      <rects>
        <_>
          8 12 3 4 -1.</_>
        <_>
          8 14 3 2 2.</_></rects>
      <tilted>0</tilted></_>
    <_>
      <rects>
        <_>
          9 8 2 4 -1.</_>
        <_>
          9 10 2 2 2.</_></rects>
      <tilted>0</tilted></_>
    <_>
      <rects>
        <_>
          9 11 6 1 -1.</_>
        <_>
          12 11 3 1 2.</_></rects>
      <tilted>0</tilted></_>
    <_>
      <rects>
        <_>
          15 8 4 7 -1.</_>
        <_>
          17 8 2 7 2.</_></rects>
      <tilted>0</tilted></_></features></cascade>
</opencv_storage>
