<?xml version="1.0"?>
<opencv_storage>
<cascade>
  <stageType>BOOST</stageType>
  <featureType>HAAR</featureType>
  <height>20</height>
  <width>20</width>
  <stageParams>
    <boostType>GAB</boostType>
    <minHitRate>9.9500000476837158e-01</minHitRate>
    <maxFalseAlarm>5.0000000000000000e-01</maxFalseAlarm>
    <weightTrimRate>9.4999999999999996e-01</weightTrimRate>
    <maxDepth>1</maxDepth>
    <maxWeakCount>100</maxWeakCount></stageParams>
  <featureParams>
    <maxCatCount>0</maxCatCount>
    <featSize>1</featSize>
    <mode>BASIC</mode></featureParams>
  <stageNum>7</stageNum>
  <stages>
    <!-- stage 0 -->
    <_>
      <maxWeakCount>2</maxWeakCount>
      <stageThreshold>-3.5471141338348389e-01</stageThreshold>
      <weakClassifiers>
        <_>
          <internalNodes>
            0 -1 6 -2.4075970053672791e-01</internalNodes>
          <leafValues>
            8.1750464439392090e-01 -9.4188863039016724e-01</leafValues></_>
        <_>
          <internalNodes>
            0 -1 10 5.8203786611557007e-02</internalNodes>
          <leafValues>
            -9.2698585987091064e-01 5.8717721700668335e-01</leafValues></_></weakClassifiers></_>
    <!-- stage 1 -->
    <_>
      <maxWeakCount>3</maxWeakCount>
      <stageThreshold>-1.2674654722213745e+00</stageThreshold>
      <weakClassifiers>
        <_>
          <internalNodes>
            0 -1 0 -1.7086985707283020e-01</internalNodes>
          <leafValues>
            6.9244134426116943e-01 -9.3057411909103394e-01</leafValues></_>
        <_>
          <internalNodes>
            0 -1 4 6.4377766102552414e-03</internalNodes>
          <leafValues>
            -7.7349787950515747e-01 5.6798374652862549e-01</leafValues></_>
        <_>
          <internalNodes>
            0 -1 18 -4.1530746966600418e-04</internalNodes>
          <leafValues>
            4.3660655617713928e-01 -9.2588675022125244e-01</leafValues></_></weakClassifiers></_>
    <!-- stage 2 -->
    <_>
      <maxWeakCount>4</maxWeakCount>
      <stageThreshold>-3.8904893398284912e-01</stageThreshold>
      <weakClassifiers>
        <_>
          <internalNodes>
            0 -1 8 -3.3629067242145538e-02</internalNodes>
          <leafValues>
            6.9531250000000000e-01 -6.9863015413284302e-01</leafValues></_>
        <_>
          <internalNodes>
            0 -1 2 -8.3116665482521057e-03</internalNodes>
          <leafValues>
            6.9548952579498291e-01 -6.8072247505187988e-01</leafValues></_>
        <_>
          <internalNodes>
            0 -1 7 -2.0691446959972382e-02</internalNodes>
          <leafValues>
            4.4039079546928406e-01 -9.5283818244934082e-01</leafValues></_>
        <_>
          <internalNodes>
            0 -1 21 4.2273392900824547e-03</internalNodes>
          <leafValues>
            -7.1920734643936157e-01 5.4991286993026733e-01</leafValues></_></weakClassifiers></_>
    <!-- stage 3 -->
    <_>
      <maxWeakCount>4</maxWeakCount>
      <stageThreshold>-9.5559972524642944e-01</stageThreshold>
      <weakClassifiers>
        <_>
          <internalNodes>
            0 -1 3 -3.3069893717765808e-01</internalNodes>
          <leafValues>
            5.9194397926330566e-01 -7.5989443063735962e-01</leafValues></_>
        <_>
          <internalNodes>
            0 -1 13 -3.8689333014190197e-03</internalNodes>
          <leafValues>
            -9.4370663166046143e-01 4.1955068707466125e-01</leafValues></_>
        <_>
          <internalNodes>
            0 -1 19 2.7803861303254962e-04</internalNodes>
          <leafValues>
            -8.5287332534790039e-01 3.5260599851608276e-01</leafValues></_>
        <_>
          <internalNodes>
            0 -1 17 -5.8118824381381273e-04</internalNodes>
          <leafValues>
            2.4903626739978790e-01 -9.8040908575057983e-01</leafValues></_></weakClassifiers></_>
    <!-- stage 4 -->
    <_>
      <maxWeakCount>4</maxWeakCount>
      <stageThreshold>-4.8056551814079285e-01</stageThreshold>
      <weakClassifiers>
        <_>
          <internalNodes>
            0 -1 19 1.0516060137888417e-04</internalNodes>
          <leafValues>
            -8.6910200119018555e-01 5.3982299566268921e-01</leafValues></_>
        <_>
          <internalNodes>
            0 -1 4 5.6851119734346867e-03</internalNodes>
          <leafValues>
            -7.8866106271743774e-01 4.4416499137878418e-01</leafValues></_>
        <_>
          <internalNodes>
            0 -1 20 3.0746188014745712e-02</internalNodes>
          <leafValues>
            -5.3907221555709839e-01 7.0057505369186401e-01</leafValues></_>
        <_>
          <internalNodes>
            0 -1 22 4.8267664387822151e-03</internalNodes>
          <leafValues>
            -8.6542648077011108e-01 4.8344364762306213e-01</leafValues></_></weakClassifiers></_>
    <!-- stage 5 -->
    <_>
      <maxWeakCount>4</maxWeakCount>
      <stageThreshold>-7.2420698404312134e-01</stageThreshold>
      <weakClassifiers>
        <_>
          <internalNodes>
            0 -1 1 -3.3125560730695724e-02</internalNodes>
          <leafValues>
            5.3360998630523682e-01 -7.8129494190216064e-01</leafValues></_>
        <_>
          <internalNodes>
            0 -1 5 1.6426039859652519e-02</internalNodes>
          <leafValues>
            -5.8703631162643433e-01 6.9733238220214844e-01</leafValues></_>
        <_>
          <internalNodes>
            0 -1 9 1.4027368160896003e-04</internalNodes>
          <leafValues>
            -9.4079387187957764e-01 4.0819004178047180e-01</leafValues></_>
        <_>
          <internalNodes>
            0 -1 12 -1.5836015809327364e-03</internalNodes>
          <leafValues>
            -9.8122900724411011e-01 2.7001324295997620e-01</leafValues></_></weakClassifiers></_>
    <!-- stage 6 -->
    <_>
      <maxWeakCount>4</maxWeakCount>
      <stageThreshold>-6.6802370548248291e-01</stageThreshold>
      <weakClassifiers>
        <_>
          <internalNodes>
            0 -1 16 -2.7485471218824387e-04</internalNodes>
          <leafValues>
            -8.4424775838851929e-01 4.3220973014831543e-01</leafValues></_>
        <_>
          <internalNodes>
            0 -1 11 -7.8042913228273392e-03</internalNodes>
          <leafValues>
            7.1760165691375732e-01 -4.6776404976844788e-01</leafValues></_>
        <_>
          <internalNodes>
            0 -1 14 1.2298326473683119e-03</internalNodes>
          <leafValues>
            3.5666701197624207e-01 -9.8769760131835938e-01</leafValues></_>
        <_>
          <internalNodes>
            0 -1 15 -2.8805821202695370e-03</internalNodes>
          <leafValues>
            -9.5952707529067993e-01 2.8732112050056458e-01</leafValues></_></weakClassifiers></_></stages>
  <features>
    <_>
      <rects>
        <_>
          1 3 18 14 -1.</_>
        <_>
          7 3 6 14 3.</_></rects>
      <tilted>0</tilted></_>
    <_>
      <rects>
        <_>
          1 5 6 13 -1.</_>
        <_>
          4 5 3 13 2.</_></rects>
      <tilted>0</tilted></_>
    <_>
      <rects>
        <_>
          1 10 4 2 -1.</_>
        <_>
          3 10 2 2 2.</_></rects>
      <tilted>0</tilted></_>
    <_>
      <rects>
        <_>
          3 1 15 18 -1.</_>
        <_>
          3 7 15 6 3.</_></rects>
      <tilted>0</tilted></_>
    <_>
      <rects>
        <_>
          3 4 4 8 -1.</_>
        <_>
          3 4 2 4 2.</_>
        <_>
          5 8 2 4 2.</_></rects>
      <tilted>0</tilted></_>
    <_>
      <rects>
        <_>
          4 0 13 3 -1.</_>
        <_>
          4 1 13 1 3.</_></rects>
      <tilted>0</tilted></_>
    <_>
      <rects>
        <_>
          4 1 14 18 -1.</_>
        <_>
          4 7 14 6 3.</_></rects>
      <tilted>0</tilted></_>
    <_>
      <rects>
        <_>
          4 4 8 9 -1.</_>
        <_>
          8 4 4 9 2.</_></rects>
      <tilted>0</tilted></_>
    <_>
      <rects>
        <_>
          5 1 13 4 -1.</_>
        <_>
          5 3 13 2 2.</_></rects>
      <tilted>0</tilted></_>
    <_>
      <rects>
        <_>
          5 11 6 3 -1.</_>
        <_>
          7 11 2 3 3.</_></rects>
      <tilted>0</tilted></_>
    <_>
      <rects>
        <_>
          5 11 10 8 -1.</_>
        <_>
          5 15 10 4 2.</_></rects>
      <tilted>0</tilted></_>
    <_>
      <rects>
        <_>
          6 1 3 2 -1.</_>
        <_>
          6 2 3 1 2.</_></rects>
      <tilted>0</tilted></_>
    <_>
      <rects>
        <_>
          7 14 8 1 -1.</_>
        <_>
          11 14 4 1 2.</_></rects>
      <tilted>0</tilted></_>
    <_>
      <rects>
        <_>
          8 3 1 12 -1.</_>
        <_>
          8 7 1 4 3.</_></rects>
      <tilted>0</tilted></_>
    <_>
      <rects>
        <_>
          8 5 6 4 -1.</_>
        <_>
          11 5 3 4 2.</_></rects>
      <tilted>0</tilted></_>
    <_>
      <rects>
        <_>
          8 6 6 2 -1.</_>
        <_>
          11 6 3 2 2.</_></rects>
      <tilted>0</tilted></_>
    <_>
      <rects>
        <_>
          8 13 4 3 -1.</_>
        <_>
          8 14 4 1 3.</_></rects>
      <tilted>0</tilted></_>
    <_>
      <rects>
        <_>
          9 5 7 4 -1.</_>
        <_>
          9 7 7 2 2.</_></rects>
      <tilted>0</tilted></_>
    <_>
      <rects>
        <_>
          9 9 2 3 -1.</_>
        <_>
          10 9 1 3 2.</_></rects>
      <tilted>0</tilted></_>
    <_>
      <rects>
        <_>
          10 5 3 6 -1.</_>
        <_>
          10 7 3 2 3.</_></rects>
      <tilted>0</tilted></_>
    <_>
      <rects>
        <_>
          11 15 4 4 -1.</_>
        <_>
          11 17 4 2 2.</_></rects>
      <tilted>0</tilted></_>
    <_>
      <rects>
        <_>
          12 15 1 4 -1.</_>
        <_>
          12 17 1 2 2.</_></rects>
      <tilted>0</tilted></_>
    <_>
      <rects>
        <_>
          14 10 4 5 -1.</_>
        <_>
          16 10 2 5 2.</_></rects>
      <tilted>0</tilted></_></features></cascade>
</opencv_storage>
